[[[[-4.32188451e-01 -1.22765779e+00 -2.82481704e-02 ... -1.79320604e-01
    -6.28737569e-01  7.57279873e-01]
   [ 8.86678249e-02  1.74371097e-02  4.47761893e-01 ... -7.73578361e-02
    -2.82010585e-01  5.70047610e-02]
   [-5.87615430e-01 -4.01878834e-01 -7.11299658e-01 ...  3.64553779e-01
     1.61037445e-01 -6.26064301e-01]]

  [[ 1.00389004e-01  5.05665004e-01  4.69095886e-01 ... -4.49518830e-01
    -6.05518520e-01  7.42968142e-01]
   [ 3.92540544e-01  6.42932296e-01  3.00796658e-01 ... -3.75467122e-01
     9.45086777e-02  8.11702982e-02]
   [ 3.15095782e-01  4.63695079e-03 -2.90630430e-01 ...  6.82722256e-02
     1.80057585e-01 -5.33151984e-01]]

  [[-2.19309833e-02  1.97702035e-01  5.04956655e-02 ...  6.18146420e-01
    -5.85149527e-01 -2.30255663e-01]
   [ 3.30390245e-01 -1.54440120e-01  3.28235209e-01 ...  4.16483402e-01
     8.09036493e-02  2.68344522e-01]
   [ 8.12970817e-01  1.77436754e-01 -3.67755294e-01 ... -3.27595055e-01
    -1.91921163e-02  2.37061247e-01]]]


 [[[-5.69420457e-01  5.96572757e-01  1.81442156e-01 ... -2.17917219e-01
    -1.28376555e+00  7.80211329e-01]
   [ 1.09758072e-01  8.43330979e-01  1.19617902e-01 ...  7.48544885e-03
    -4.15904284e-01 -2.67397659e-03]
   [-5.23600459e-01 -4.23277840e-02 -3.33328657e-02 ...  6.87247992e-01
     2.60055155e-01 -4.11723644e-01]]

  [[-5.55759430e-01  8.54001105e-01  6.07875943e-01 ... -9.45259631e-01
    -2.92789489e-01  1.79446891e-01]
   [ 1.91801652e-01  3.83435816e-01  9.25555825e-02 ... -7.62031198e-01
     6.02179170e-01 -6.90626651e-02]
   [-2.80887991e-01 -2.60048002e-01  5.23919880e-01 ... -2.91835815e-01
     1.09467530e+00  3.00474036e-02]]

  [[-5.15071511e-01 -2.18081459e-01  4.60327743e-03 ...  9.37593400e-01
    -3.73649508e-01 -1.11850357e+00]
   [ 2.17159048e-01 -9.22323823e-01 -9.55116078e-02 ...  7.17883527e-01
     4.46901619e-01 -1.58199668e-01]
   [ 2.75640100e-01 -1.27155617e-01 -1.18934236e-01 ... -6.73130900e-02
     5.78103602e-01  5.12271643e-01]]]


 [[[-1.70954347e-01  2.38175333e-01  5.64003885e-01 ... -1.52846470e-01
    -4.99005461e+00  4.51890081e-01]
   [ 5.03769636e-01  4.73833941e-02  7.83603713e-02 ... -2.60369420e-01
    -5.75990057e+00  1.47081157e-02]
   [-5.24127603e-01 -8.33821520e-02  1.81847900e-01 ...  3.76026690e-01
    -1.67595482e+00 -2.07334474e-01]]

  [[-1.12061393e+00 -4.38845724e-01  8.12606156e-01 ... -3.76885802e-01
    -8.07880104e-01 -8.18679750e-01]
   [ 4.64780517e-02 -8.65163624e-01  1.51056508e-02 ... -2.80212760e-01
     2.54009247e-01 -2.47107014e-01]
   [-7.79326439e-01 -3.94167244e-01  2.19283178e-01 ...  1.59189671e-01
     2.81805873e-01  2.61739999e-01]]

  [[-4.33630854e-01  5.92781603e-02  1.76214084e-01 ...  7.46984303e-01
    -8.51223350e-01 -1.01533556e+00]
   [ 6.44021153e-01 -2.29519412e-01  7.38795474e-02 ...  3.82557988e-01
     1.58788726e-01  2.88171709e-01]
   [-7.85969943e-02  1.01886582e+00  1.73083439e-01 ... -7.25129783e-01
    -6.43250048e-02  7.00438857e-01]]]]