[[[[ 8.26893449e-02 -9.71680880e-02  7.76289627e-02 ...  7.90672004e-01
     2.87364185e-01 -1.01104033e+00]
   [ 6.36921644e-01 -1.27067125e+00  6.28834426e-01 ... -6.50376797e-01
     2.74754316e-01 -2.52044182e-02]
   [ 3.51956010e-01  3.30224156e-01 -2.24518836e-01 ...  2.80942321e-01
    -1.09388137e+00 -4.73348886e-01]
   ...
   [ 6.69474602e-02 -8.34887505e-01  8.92028809e-01 ...  3.29621695e-02
    -2.96360523e-01  5.63248158e-01]
   [ 1.63106043e-02  1.20600060e-01  6.36044741e-02 ...  1.71007946e-01
    -2.07881466e-01  1.51012152e-01]
   [-1.95257440e-01 -5.44860885e-02 -6.47789612e-02 ... -7.96576291e-02
    -7.71444514e-02  6.36487752e-02]]

  [[-9.35955405e-01 -6.88688755e-01 -7.94025719e-01 ...  4.21866953e-01
     3.19661885e-01  4.47901664e-03]
   [ 5.64527810e-01 -5.29688597e-01  2.93646783e-01 ... -8.50848019e-01
    -2.50716954e-01  3.82251710e-01]
   [ 1.02466404e+00 -2.81356394e-01  5.43332100e-01 ... -3.32544535e-01
    -2.62529403e-01 -1.65365458e+00]
   ...
   [-4.82274979e-01 -9.63041246e-01  2.07998708e-01 ... -8.48072469e-02
     3.93277973e-01  3.74236763e-01]
   [ 7.90731311e-02 -1.29357688e-02 -6.74129575e-02 ... -1.09103478e-01
    -8.92879292e-02 -3.06585208e-02]
   [-1.91298321e-01  1.13337636e-01  3.10436748e-02 ... -1.38260499e-01
    -1.84480876e-01 -7.74477497e-02]]

  [[ 5.03195338e-02 -5.92521317e-02  2.94203073e-01 ...  5.45704126e-01
    -5.52072823e-02 -5.60343862e-01]
   [ 5.23290575e-01 -6.91241086e-01  1.16310608e+00 ... -7.44225562e-01
     2.33223826e-01 -8.58818367e-02]
   [-6.06448352e-01  2.28194073e-01 -9.29113030e-01 ... -3.89006793e-01
    -1.59274474e-01 -7.61075854e-01]
   ...
   [-6.81778669e-01 -4.65239078e-01  3.22261423e-01 ... -4.26480711e-01
    -8.09669867e-02  1.06477559e+00]
   [-2.32338253e-02  1.57971069e-01  3.87405269e-02 ... -1.62350461e-02
    -1.03337973e-01 -4.82031442e-02]
   [-2.42585242e-01  6.95270002e-02  9.60893184e-03 ... -1.20333672e-01
    -2.61398647e-02 -7.66262636e-02]]]


 [[[ 4.37278032e-01  9.32949483e-01  2.19368249e-01 ...  3.96916598e-01
    -1.03901632e-01  2.07532316e-01]
   [ 1.17032453e-02 -3.85331988e-01  1.46593258e-01 ...  8.94322634e-01
    -1.70333847e-01 -5.46072304e-01]
   [-3.84616740e-02  1.17846560e+00 -4.88726765e-01 ...  5.26878536e-01
    -5.42550802e-01 -3.45518976e-01]
   ...
   [ 2.59473503e-01  2.28320867e-01  3.93218994e-02 ... -8.94441977e-02
    -6.46500170e-01 -5.96678078e-01]
   [-2.32085795e-03 -3.18038613e-02  3.78911272e-02 ...  1.45149231e-01
     1.22213542e-01 -2.56889351e-02]
   [ 9.86876190e-02  6.89159110e-02  2.83864755e-02 ...  9.37854126e-03
     1.09365337e-01  7.59499194e-03]]

  [[-7.93688059e-01 -1.52915612e-01  5.08955359e-01 ... -1.84255764e-01
     6.10426925e-02  8.28601778e-01]
   [-3.67048979e-01  4.48896140e-01 -8.21015298e-01 ...  1.21439886e+00
    -6.88385308e-01 -7.65565574e-01]
   [ 3.63669634e-01  5.00650287e-01 -5.11251628e-01 ... -5.11602044e-01
    -4.68938738e-01  7.67772794e-02]
   ...
   [ 2.81012446e-01  8.65674078e-01 -8.20829347e-03 ... -7.65737772e-01
    -3.69511068e-01  1.21892065e-01]
   [ 1.72078341e-01 -8.87984410e-02 -5.16232811e-02 ...  6.03275448e-02
    -2.17604488e-02 -7.75556788e-02]
   [-3.70953679e-02  1.24377504e-01 -1.92521885e-02 ...  2.31217761e-02
    -1.41376123e-01  2.38771867e-02]]

  [[-2.01394975e-01  4.07464713e-01  9.15160358e-01 ... -2.99393952e-01
    -3.37950021e-01  4.46072072e-02]
   [ 5.52594483e-01 -1.82893440e-01  1.06466286e-01 ...  4.51594234e-01
    -1.30814299e-01 -6.76675607e-03]
   [-6.95644259e-01  3.02320212e-01 -5.69631636e-01 ... -5.34131825e-01
    -5.47152579e-01 -1.13210261e-01]
   ...
   [-6.51330233e-01 -6.50239646e-01 -2.26704940e-01 ... -6.59155607e-01
     7.04034090e-01  1.05737433e-01]
   [ 3.82242091e-02  7.89228007e-02  7.61993637e-04 ...  8.98268372e-02
     1.14847980e-01  1.41320229e-01]
   [ 1.45415276e-01  5.83718084e-02  9.65276510e-02 ... -7.25263543e-03
     8.41116011e-02  4.12913784e-02]]]


 [[[-4.68909778e-02  3.63530517e-01 -1.92667022e-01 ...  3.29493344e-01
    -6.18469954e-01  1.27361845e-02]
   [-1.08018112e+00  8.57461631e-01  5.03529668e-01 ...  7.66858220e-01
    -1.93898395e-01 -1.43686846e-01]
   [-1.26767203e-01  2.92878598e-01  1.87915340e-01 ...  4.57202226e-01
     1.66917667e-01  4.69612151e-01]
   ...
   [ 1.64736524e-01 -3.67917746e-01 -5.62071443e-01 ...  2.98155725e-01
     2.19948307e-01 -3.05967871e-02]
   [-3.23004462e-02  1.14813536e-01 -7.08555523e-03 ...  1.16240770e-01
     1.59355644e-02  9.12060067e-02]
   [ 1.17888726e-01 -9.11890268e-02 -1.54083237e-01 ...  2.02040020e-02
     9.17369947e-02 -6.81059882e-02]]

  [[-2.40151227e-01 -9.39764977e-02  1.82142621e-03 ... -3.50327492e-01
    -1.14788854e+00  5.81712544e-01]
   [-1.34158659e+00  7.69235551e-01 -7.29835749e-01 ...  3.38535309e-01
     1.67413339e-01 -1.59087986e-01]
   [-5.18648565e-01 -4.02333975e-01 -2.71216631e-01 ... -2.94756621e-01
     2.74468660e-01 -3.02913845e-01]
   ...
   [ 2.64178246e-01  4.27109271e-01 -2.52572089e-01 ...  5.90607047e-01
    -4.53479737e-01 -3.40793222e-01]
   [-5.57667948e-02  4.21618968e-02  2.65107341e-02 ...  2.90608853e-01
     1.41686471e-02 -8.29237923e-02]
   [ 1.31135166e-01 -2.53438614e-02  9.90837514e-02 ...  5.89983864e-03
     5.36324121e-02 -9.02383327e-02]]

  [[-1.68461427e-01  1.72601938e-01 -7.50168562e-02 ... -7.56376863e-01
     1.14729051e-02  9.37805176e-02]
   [-3.61857384e-01  3.59951943e-01  2.64385790e-01 ... -3.64812613e-02
     4.61050391e-01  8.78603756e-01]
   [-4.24281448e-01 -3.58082443e-01 -5.91899902e-02 ... -9.93069649e-01
     6.82149781e-03 -2.28280053e-01]
   ...
   [ 2.23809972e-01  5.12858391e-01 -1.56396087e-02 ... -1.30953863e-02
     5.54346740e-01  2.27658406e-01]
   [-2.80926470e-02  2.67653987e-02  1.43295065e-01 ...  1.24417216e-01
    -2.83734128e-02  1.17723219e-01]
   [ 1.80028826e-02  9.28556025e-02 -7.51919597e-02 ... -1.22643471e-01
    -4.07454930e-02 -4.66332026e-02]]]]