[[[[ 3.76970112e-01 -3.02102923e-01  3.15380722e-01 ... -4.92333114e-01
     4.79137242e-01 -4.64248866e-01]
   [ 5.13684094e-01 -3.07559460e-01  6.18036501e-02 ...  4.93616074e-01
    -3.05599660e-01 -1.29868880e-01]
   [ 2.45730907e-01 -5.87195575e-01  1.90718308e-01 ... -6.00948445e-02
    -5.27323961e-01 -1.47023737e-01]
   ...
   [ 2.54954696e-01 -1.03863142e-01 -1.48477331e-01 ...  6.04649425e-01
    -4.16440457e-01  5.63816205e-02]
   [-9.41821992e-01  5.29175878e-01  1.06161785e+00 ...  7.04330113e-03
     5.45952320e-01  8.66592824e-01]
   [-4.11519408e-01 -3.10955286e-01 -3.53031009e-01 ...  1.58369765e-01
     7.27885962e-01  5.47060132e-01]]

  [[-1.61545381e-01  7.01133192e-01  2.45583951e-01 ... -4.85832572e-01
    -1.28639281e-01 -1.26466584e+00]
   [ 1.90150216e-01 -6.48948491e-01  1.67732298e-01 ...  1.51341009e+00
    -5.18362939e-01  4.79651242e-01]
   [-2.47447398e-02  9.09324437e-02  4.79551613e-01 ...  2.48956114e-01
    -2.54886806e-01  1.04548186e-01]
   ...
   [-3.56653720e-01  1.58627599e-01  6.68854952e-01 ... -4.43504959e-01
    -5.51538467e-01  3.38673174e-01]
   [ 4.70031440e-01 -4.81290787e-01  5.74451268e-01 ...  1.77732989e-01
    -3.09634715e-01  3.07644635e-01]
   [ 3.27186316e-01  2.79506326e-01 -6.66920424e-01 ... -6.79332733e-01
    -3.61768991e-01  1.35691750e+00]]

  [[-1.44182599e+00  8.44494998e-01  9.34248418e-02 ...  6.76007748e-01
    -2.72134304e-01 -3.82215589e-01]
   [-5.05358651e-02 -4.65430826e-01 -6.87424541e-02 ...  7.51139820e-01
    -4.12948519e-01  4.61324602e-01]
   [ 1.57064036e-01  6.28257871e-01  8.54718909e-02 ... -3.85809571e-01
    -3.74984384e-01 -2.69504189e-01]
   ...
   [-1.21098351e+00  2.05210939e-01 -6.48979008e-01 ... -8.98925364e-02
    -4.80277747e-01 -5.28432071e-01]
   [-4.55030389e-02 -3.71208489e-01  4.11815375e-01 ...  5.30962467e-01
    -5.57933629e-01  1.01252273e-01]
   [ 1.25822380e-01  1.67739913e-01  2.17510000e-01 ...  1.97432533e-01
    -4.30522300e-02  3.68618667e-01]]]


 [[[ 5.95174909e-01 -2.23227501e-01 -1.02605887e-01 ... -8.29591274e-01
    -8.87453735e-01 -8.27117801e-01]
   [-5.54392338e-01 -6.69560552e-01  2.23224238e-03 ... -3.22759360e-01
     1.39210641e-01  7.99046397e-01]
   [ 3.44215274e-01  4.56259191e-01 -3.75578314e-01 ... -9.26287547e-02
     4.75226223e-01 -2.00783655e-01]
   ...
   [ 6.94848955e-01 -1.92614347e-01 -2.82582119e-02 ...  4.10898834e-01
    -1.57265723e-01 -4.71331924e-01]
   [-1.19246650e+00  3.61026794e-01  2.99446732e-01 ...  3.54513258e-01
     5.50520957e-01  3.09642494e-01]
   [-3.36217940e-01  2.16646746e-01 -5.50904162e-02 ...  4.38332826e-01
     7.83148706e-01 -1.15865462e-01]]

  [[-7.92926311e-01 -8.72159824e-02  2.68314481e-01 ... -1.79086372e-01
    -8.56088638e-01  4.32384104e-01]
   [-6.94991589e-01 -5.43104053e-01  6.22602046e-01 ... -4.00443897e-02
     5.59234440e-01  3.67694020e-01]
   [-2.45874405e-01 -2.17281386e-01 -8.12938273e-01 ... -5.16148917e-02
     2.68135548e-01  3.64765435e-01]
   ...
   [ 4.26999241e-01 -3.10468912e-01  1.80986077e-01 ... -8.91604185e-01
    -9.35900033e-01 -8.99169207e-01]
   [-2.32705429e-01 -7.92380348e-02 -4.54047322e-01 ... -1.51897296e-01
     2.11619958e-01 -4.08597253e-02]
   [ 3.03509355e-01  1.94634035e-01 -7.71059453e-01 ... -2.42508024e-01
     5.67458451e-01  4.29628909e-01]]

  [[-9.63314354e-01  4.59558755e-01  1.00443959e-01 ... -7.86944211e-01
     1.89215153e-01 -4.96446908e-01]
   [ 6.82996154e-01 -2.91889459e-01 -1.25176132e-01 ...  8.15810800e-01
     3.55155379e-01  5.48003078e-01]
   [ 5.37865520e-01  6.43788278e-01 -1.16801515e-01 ... -5.69201052e-01
     2.28480980e-01  4.84722257e-01]
   ...
   [-7.03721583e-01 -1.06674060e-02 -7.98903584e-01 ... -3.41161281e-01
    -6.04517281e-01 -3.25809956e-01]
   [ 2.56234616e-01 -8.88282776e-01  4.89051700e-01 ... -1.38049293e+00
    -3.95404935e-01  3.70172441e-01]
   [-1.37085328e-04 -5.96298933e-01  4.15279716e-01 ...  5.82747638e-01
    -3.00089061e-01 -7.16562152e-01]]]


 [[[ 7.59453893e-01 -2.62986034e-01 -4.85912979e-01 ... -5.05089104e-01
    -7.77986467e-01 -6.53432965e-01]
   [-5.34588397e-01  6.41537309e-01 -7.50357509e-01 ... -7.79238164e-01
     7.29560032e-02 -5.41744716e-02]
   [ 7.16220200e-01  1.13835379e-01  2.71465272e-01 ... -3.66700977e-01
     5.92242062e-01  2.84523703e-02]
   ...
   [ 4.05665159e-01  4.88385737e-01  4.11645830e-01 ...  1.34950623e-01
    -2.39698097e-01 -6.80090427e-01]
   [-3.67339879e-01 -1.65862322e-01 -3.40478092e-01 ...  4.11112398e-01
    -1.47736177e-03 -4.52928096e-01]
   [ 5.27307332e-01  2.65555352e-01 -1.43062949e-01 ...  2.28752673e-01
     6.09878600e-02 -3.08143765e-01]]

  [[-5.21947086e-01 -1.36068076e-01  6.16326630e-01 ...  2.85055280e-01
    -3.97746474e-01  3.29529494e-01]
   [-2.51776695e-01 -1.29069388e-01  4.14188534e-01 ... -3.61864835e-01
     3.22886020e-01  1.28902450e-01]
   [ 5.46263456e-02 -4.67506051e-01  2.24667549e-01 ...  2.94367373e-01
    -2.67267764e-01  4.63392586e-01]
   ...
   [ 2.86378384e-01 -8.17853957e-02  4.96229529e-01 ...  4.30274848e-03
    -4.47777689e-01 -8.97002459e-01]
   [ 1.40608072e-01  1.77478403e-01 -2.42270842e-01 ...  9.86029506e-01
     1.53061524e-01  9.98458341e-02]
   [ 6.05365753e-01  3.86585265e-01  7.93402735e-03 ...  4.83572096e-01
     7.89410830e-01 -7.22474039e-01]]

  [[-9.29194629e-01  5.82417488e-01 -3.13006230e-02 ... -1.97683871e-01
    -7.87636459e-01 -4.91401076e-01]
   [ 7.26433337e-01  8.22182894e-02 -4.45702732e-01 ...  7.42958665e-01
     3.71125787e-02 -9.64207128e-02]
   [-5.73688745e-01 -5.86669862e-01  7.14001775e-01 ... -1.60773695e-01
     1.02545097e-01 -3.58139396e-01]
   ...
   [-1.19183767e+00 -4.42181855e-01 -3.60528409e-01 ... -6.05166614e-01
     2.03394711e-01 -9.57342207e-01]
   [ 4.08118397e-01 -4.86385167e-01 -6.60720766e-01 ... -6.26010001e-01
     4.13795292e-01 -1.02343544e-01]
   [-3.40272993e-01 -5.46822608e-01  8.55007350e-01 ...  3.67279798e-01
    -6.50263071e-01 -1.86112776e-01]]]]