[[[[-8.45029876e-02  8.30587298e-02 -7.55833983e-01 ...  4.81427610e-02
     4.26766306e-01 -2.61713892e-01]
   [-5.29931784e-01 -4.51845139e-01 -4.05420095e-01 ... -8.66992354e-01
     6.71379030e-01 -9.66789797e-02]
   [ 4.78578269e-01  3.28912288e-01 -2.11536944e-01 ...  8.44082892e-01
    -9.00242448e-01 -7.78516829e-01]
   ...
   [ 3.71870287e-02 -9.92779732e-01  3.32602113e-02 ... -1.54657558e-01
     1.05614282e-01 -1.09372072e-01]
   [-8.29786584e-02 -6.09908104e-02 -5.17267227e-01 ... -7.35450208e-01
    -7.20795870e-01 -2.95469016e-01]
   [ 7.66177237e-01 -3.45622241e-01  6.07893586e-01 ...  6.85816765e-01
     4.84669179e-01 -4.80435640e-01]]

  [[-7.36802459e-01  6.78765327e-02  3.21082175e-01 ...  4.35891867e-01
     7.24445656e-02  5.76161385e-01]
   [-7.77820587e-01 -2.81776518e-01 -2.48855837e-02 ... -9.19736773e-02
     6.34021163e-01  1.18950762e-01]
   [-2.51359716e-02 -3.59652042e-01 -2.37413287e-01 ...  1.11041054e-01
    -4.91248846e-01 -2.62520611e-01]
   ...
   [ 6.60103261e-01  1.71171501e-01  6.92919791e-02 ...  5.54791331e-01
     2.05890030e-01 -6.94362521e-01]
   [-1.14715159e-01  3.77553180e-02  8.85944217e-02 ... -2.03346387e-01
     2.62115002e-01  3.44689578e-01]
   [ 1.06206632e+00 -4.29603010e-01 -2.48304367e-01 ...  4.37646002e-01
     6.65480137e-01 -5.45277119e-01]]

  [[-7.90873706e-01 -1.16051331e-01  1.10207960e-01 ...  1.24575324e-01
     4.82151389e-01  8.16555142e-01]
   [-9.36629772e-01 -6.04311585e-01 -1.61333114e-01 ... -6.84417784e-01
    -1.14584911e+00  3.60761136e-01]
   [-3.87651145e-01  9.14988995e-01  7.53749674e-03 ...  2.79658318e-01
    -9.62330475e-02 -9.17339399e-02]
   ...
   [ 5.07988870e-01  7.10259557e-01 -7.90404201e-01 ...  8.74383688e-01
    -4.07893956e-01  3.00723374e-01]
   [-3.14381957e-01 -3.00983459e-01  3.93577486e-01 ...  3.59026968e-01
    -2.80142762e-02  1.08337271e+00]
   [-1.31397486e-01  2.11565375e-01 -9.82109070e-01 ...  5.82884848e-01
     2.61833102e-01 -2.51005162e-02]]]


 [[[-1.57110090e-03  7.42552161e-01  2.73316741e-01 ...  3.35178785e-02
    -1.70306653e-01 -6.26725912e-01]
   [ 5.12559712e-01 -5.14540553e-01 -4.58788574e-01 ...  1.74702227e-01
     5.33136904e-01 -5.97798467e-01]
   [ 2.36686230e-01  2.30069250e-01  6.92701280e-01 ... -8.02124813e-02
    -8.37059096e-02  7.65398562e-01]
   ...
   [ 2.14977622e-01 -6.93262756e-01  3.89147937e-01 ... -7.81232417e-01
     2.63423681e-01  5.63906848e-01]
   [ 4.90167141e-02  3.04619879e-01  8.30458105e-01 ... -6.99232042e-01
     2.69137293e-01 -5.26037753e-01]
   [-1.11744511e+00 -6.56126261e-01  3.52634788e-02 ...  1.80790231e-01
     2.23892882e-01 -3.11741889e-01]]

  [[-3.24031323e-01  4.97709140e-02  2.38691956e-01 ...  2.77894825e-01
     6.05227709e-01 -4.48404700e-01]
   [ 7.59851336e-02  7.47924522e-02  6.21912658e-01 ...  4.24563617e-01
     8.16070139e-01 -3.91501397e-01]
   [-1.06242009e-01  8.00149381e-01  4.04176593e-01 ...  2.00111702e-01
     1.48633663e-02  9.31372344e-02]
   ...
   [ 3.97978202e-02 -3.07670802e-01 -1.33651331e-01 ... -1.02856785e-01
    -5.52132390e-02 -6.95783794e-01]
   [-5.87300420e-01 -4.90104482e-02  2.42410287e-01 ... -4.67854142e-01
     1.15867719e-01 -1.92704320e-01]
   [ 4.21239138e-02  1.34196952e-01 -1.65002799e+00 ...  2.74667650e-01
     3.19861859e-01  3.08981389e-01]]

  [[-7.93691799e-02  1.97036281e-01  3.02654177e-01 ... -1.85562987e-02
    -1.39921382e-01 -3.21305692e-01]
   [-1.45284534e-01 -4.27991943e-03  6.79075837e-01 ...  9.01093304e-01
     2.03234509e-01  9.65177059e-01]
   [-4.27852347e-02  6.32059336e-01  2.85638034e-01 ...  4.49830711e-01
    -3.22489172e-01  3.33354712e-01]
   ...
   [-5.93750298e-01 -7.08914042e-01 -1.13972592e+00 ... -3.85181248e-01
    -1.45863369e-01 -1.12267822e-01]
   [-3.36027026e-01 -3.09828937e-01  1.73388019e-01 ... -2.92113841e-01
    -3.13815534e-01  2.93187708e-01]
   [-3.92279029e-01  2.36530751e-01 -1.13331817e-01 ...  8.37564886e-01
    -1.15773939e-01  3.91066998e-01]]]


 [[[ 3.03222477e-01 -5.52302420e-01  7.14196384e-01 ...  2.97688782e-01
    -1.03911474e-01 -2.00058997e-01]
   [ 3.94800812e-01  9.04585898e-01 -1.98872790e-01 ... -1.32264256e-01
    -4.15407717e-01  5.72792232e-01]
   [ 4.19854403e-01 -4.07865644e-02  3.94954346e-02 ...  4.27514091e-02
     6.11487985e-01  5.80567896e-01]
   ...
   [-6.59165606e-02  3.95695895e-01 -5.55310249e-01 ...  2.03674510e-02
     7.65837431e-01  3.77883703e-01]
   [ 7.30602741e-01  5.26360333e-01 -1.37464356e+00 ... -7.66343534e-01
     1.29438564e-01 -2.11629853e-01]
   [-6.91275358e-01  8.03565741e-01 -8.25992413e-03 ... -2.12329850e-01
     1.27389324e+00 -6.61485672e-01]]

  [[ 2.01828197e-01 -6.62583590e-01  3.92700493e-01 ...  2.91120578e-02
     2.43444800e-01  5.59921801e-01]
   [-2.53521949e-01  2.67452508e-01  4.05658633e-01 ... -8.47989798e-01
    -4.45548385e-01  7.44493008e-01]
   [ 5.28611362e-01  4.69145030e-01  2.71059841e-01 ...  1.23894336e-02
     9.87622857e-01  2.66860068e-01]
   ...
   [-6.47871196e-03 -2.11186498e-01 -3.01276088e-01 ...  3.20036232e-01
     2.16567785e-01 -3.58853489e-01]
   [-1.61013976e-01  2.32656881e-01  3.05669248e-01 ...  3.91239941e-01
    -2.07856402e-01 -1.07250881e+00]
   [-7.39381909e-01  2.52289414e-01 -1.87582076e-01 ...  4.27112937e-01
     8.30697060e-01 -1.55261993e-01]]

  [[ 2.30208427e-01 -2.25133728e-02  4.91230637e-01 ... -1.06739962e+00
     1.54240087e-01  5.04158795e-01]
   [-4.23895866e-01  8.78328606e-02  4.27855492e-01 ...  9.14272591e-02
    -9.41932738e-01  1.21136606e+00]
   [-5.71275577e-02 -1.12525225e+00  1.44975215e-01 ...  9.07309592e-01
     4.16218713e-02  6.99729919e-01]
   ...
   [ 3.00268054e-01  1.27417922e-01 -2.27765709e-01 ... -2.84809083e-01
     2.74874598e-01 -6.24172926e-01]
   [ 6.09790124e-02  1.59628719e-01  5.83054602e-01 ... -2.21639886e-01
     4.31921892e-02 -7.15528965e-01]
   [-3.77184331e-01  3.74262720e-01 -7.33176053e-01 ...  8.81357670e-01
    -4.14396152e-02 -5.13981342e-01]]]]